svm_type c_svc
kernel_type rbf
gamma 0.00621118
nr_class 2
total_sv 56
rho -0.963444
label 1 0
nr_sv 35 21
SV
1 4:1 13:1 
0.4644054025745984 1:1 2:1 13:1 69:1 
1 1:1 13:1 69:1 111:1 139:1 152:1 
0.2752605241485544 1:1 2:1 13:1 57:1 90:1 109:1 140:1 158:1 
0.185796563284909 4:1 13:1 75:1 89:1 157:1 158:1 
0.1576052538118645 4:1 13:1 46:1 108:1 109:1 139:1 158:1 
0.3354517678275361 1:1 2:1 4:1 13:1 71:1 77:1 105:1 116:1 161:1 
0.3077116048709779 1:1 2:1 4:1 13:1 81:1 161:1 
0.5588899628217154 1:1 2:1 13:1 123:1 157:1 158:1 
1 1:1 2:1 13:1 77:1 161:1 
0.09951819918559565 4:1 13:1 46:1 57:1 84:1 108:1 139:1 158:1 
1 13:1 45:1 53:1 64:1 104:1 135:1 139:1 
1 1:1 2:1 13:1 66:1 
0.4374231942893739 1:1 2:1 13:1 48:1 
0.3280630223187826 4:1 13:1 75:1 123:1 157:1 158:1 
1 1:1 2:1 13:1 
1 1:1 2:1 13:1 
1 1:1 58:1 111:1 139:1 152:1 
0.2538921210763702 4:1 7:1 139:1 
1 1:1 2:1 7:1 
0.4418496469719004 1:1 2:1 7:1 58:1 
0.2163071575460422 4:1 7:1 68:1 94:1 136:1 143:1 161:1 
0.6032000345116869 4:1 7:1 119:1 143:1 161:1 
0.6544332536525783 4:1 7:1 89:1 159:1 161:1 
0.5401945232846663 1:1 2:1 7:1 143:1 161:1 
0.4502777539099651 1:1 2:1 7:1 115:1 139:1 158:1 159:1 161:1 
0.8823640284609238 1:1 2:1 7:1 115:1 121:1 158:1 159:1 161:1 
1 1:1 2:1 7:1 82:1 160:1 
0.1134773251150885 4:1 7:1 75:1 89:1 157:1 158:1 
0.1071021268104199 1:1 2:1 7:1 123:1 157:1 158:1 
0.5162542783902931 1:1 2:1 98:1 
0.07052225513615706 1:1 2:1 5:1 98:1 
1 4:1 5:1 
1 4:1 5:1 
1 4:1 5:1 
-1 1:1 13:1 69:1 
-1 1:1 13:1 
-1 1:1 13:1 71:1 77:1 105:1 116:1 161:1 
-1 1:1 4:1 13:1 81:1 161:1 
-1 1:1 13:1 45:1 53:1 64:1 104:1 120:1 135:1 139:1 155:1 
-1 1:1 13:1 100:1 
-1 1:1 13:1 83:1 129:1 161:1 
-1 1:1 13:1 103:1 161:1 
-1 1:1 13:1 88:1 102:1 157:1 158:1 161:1 
-1 1:1 13:1 62:1 158:1 
-1 1:1 4:1 13:1 56:1 66:1 
-1 1:1 7:1 58:1 
-1 1:1 7:1 
-1 1:1 7:1 115:1 139:1 158:1 159:1 161:1 
-1 1:1 4:1 7:1 132:1 158:1 
-1 1:1 4:1 7:1 82:1 160:1 
-1 1:1 7:1 81:1 
-1 1:1 7:1 150:1 
-1 1:1 5:1 85:1 
-1 1:1 5:1 
-1 1:1 5:1 98:1 111:1 139:1 152:1 
